<?xml version="1.0"?>
<opencv_storage>
<cascade>
  <stageType>BOOST</stageType>
  <featureType>HAAR</featureType>
  <height>24</height>
  <width>24</width>
  <stageParams>
    <boostType>GAB</boostType>
    <minHitRate>9.9500000476837158e-01</minHitRate>
    <maxFalseAlarm>5.0000000000000000e-01</maxFalseAlarm>
    <weightTrimRate>9.4999998807907104e-01</weightTrimRate>
    <maxDepth>1</maxDepth>
    <maxWeakCount>100</maxWeakCount></stageParams>
  <featureParams>
    <maxCatCount>0</maxCatCount>
    <featSize>1</featSize>
    <mode>BASIC</mode></featureParams>
  <stageNum>5</stageNum>
  <stages>
    <!-- stage 0 -->
    <_>
      <maxWeakCount>3</maxWeakCount>
      <stageThreshold>-1.1254110336303711e+00</stageThreshold>
      <weakClassifiers>
        <_>
          <internalNodes>
            0 -1 10 -6.1549293994903564e-01</internalNodes>
          <leafValues>
            1. -9.9900048971176147e-01</leafValues></_>
        <_>
          <internalNodes>
            0 -1 10 -6.1549293994903564e-01</internalNodes>
          <leafValues>
            1. -9.9265277385711670e-01</leafValues></_>
        <_>
          <internalNodes>
            0 -1 5 -7.4736928939819336e-01</internalNodes>
          <leafValues>
            8.6624228954315186e-01 -1.</leafValues></_></weakClassifiers></_>
    <!-- stage 1 -->
    <_>
      <maxWeakCount>3</maxWeakCount>
      <stageThreshold>-1.3221987485885620e+00</stageThreshold>
      <weakClassifiers>
        <_>
          <internalNodes>
            0 -1 14 1.7184227705001831e-01</internalNodes>
          <leafValues>
            -9.9900025129318237e-01 9.9439775943756104e-01</leafValues></_>
        <_>
          <internalNodes>
            0 -1 8 -5.7557094097137451e-01</internalNodes>
          <leafValues>
            9.8887783288955688e-01 -9.9266070127487183e-01</leafValues></_>
        <_>
          <internalNodes>
            0 -1 11 -1.9952499866485596e-01</internalNodes>
          <leafValues>
            6.6946220397949219e-01 -1.</leafValues></_></weakClassifiers></_>
    <!-- stage 2 -->
    <_>
      <maxWeakCount>4</maxWeakCount>
      <stageThreshold>-2.2983710765838623e+00</stageThreshold>
      <weakClassifiers>
        <_>
          <internalNodes>
            0 -1 0 -4.2049390077590942e-01</internalNodes>
          <leafValues>
            9.4005447626113892e-01 -9.9899774789810181e-01</leafValues></_>
        <_>
          <internalNodes>
            0 -1 2 -4.2378729581832886e-01</internalNodes>
          <leafValues>
            8.9486247301101685e-01 -9.9273341894149780e-01</leafValues></_>
        <_>
          <internalNodes>
            0 -1 1 -1.8221969902515411e-01</internalNodes>
          <leafValues>
            8.4838396310806274e-01 -9.4952905178070068e-01</leafValues></_>
        <_>
          <internalNodes>
            0 -1 9 -2.8419997543096542e-03</internalNodes>
          <leafValues>
            6.4288926124572754e-01 -1.</leafValues></_></weakClassifiers></_>
    <!-- stage 3 -->
    <_>
      <maxWeakCount>4</maxWeakCount>
      <stageThreshold>-2.4698612689971924e+00</stageThreshold>
      <weakClassifiers>
        <_>
          <internalNodes>
            0 -1 7 -4.0090091526508331e-02</internalNodes>
          <leafValues>
            7.4083131551742554e-01 -9.9898707866668701e-01</leafValues></_>
        <_>
          <internalNodes>
            0 -1 15 -2.3539075627923012e-03</internalNodes>
          <leafValues>
            7.4945735931396484e-01 -9.9297308921813965e-01</leafValues></_>
        <_>
          <internalNodes>
            0 -1 13 -1.4574158005416393e-02</internalNodes>
          <leafValues>
            6.5981787443161011e-01 -9.5273405313491821e-01</leafValues></_>
        <_>
          <internalNodes>
            0 -1 6 -8.6625805124640465e-03</internalNodes>
          <leafValues>
            4.7483307123184204e-01 -1.</leafValues></_></weakClassifiers></_>
    <!-- stage 4 -->
    <_>
      <maxWeakCount>4</maxWeakCount>
      <stageThreshold>-2.4665060043334961e+00</stageThreshold>
      <weakClassifiers>
        <_>
          <internalNodes>
            0 -1 3 -4.8282019793987274e-02</internalNodes>
          <leafValues>
            6.8720376491546631e-01 -9.9898374080657959e-01</leafValues></_>
        <_>
          <internalNodes>
            0 -1 16 1.1406990885734558e-01</internalNodes>
          <leafValues>
            -9.9294292926788330e-01 5.8997541666030884e-01</leafValues></_>
        <_>
          <internalNodes>
            0 -1 12 -5.0495397299528122e-03</internalNodes>
          <leafValues>
            6.5953296422958374e-01 -9.5460301637649536e-01</leafValues></_>
        <_>
          <internalNodes>
            0 -1 4 6.7384834401309490e-03</internalNodes>
          <leafValues>
            -1. 4.8002362251281738e-01</leafValues></_></weakClassifiers></_></stages>
  <features>
    <_>
      <rects>
        <_>
          0 5 18 15 -1.</_>
        <_>
          9 5 9 15 2.</_></rects>
      <tilted>0</tilted></_>
    <_>
      <rects>
        <_>
          0 9 12 11 -1.</_>
        <_>
          6 9 6 11 2.</_></rects>
      <tilted>0</tilted></_>
    <_>
      <rects>
        <_>
          1 5 21 15 -1.</_>
        <_>
          8 5 7 15 3.</_></rects>
      <tilted>0</tilted></_>
    <_>
      <rects>
        <_>
          1 10 12 2 -1.</_>
        <_>
          7 10 6 2 2.</_></rects>
      <tilted>0</tilted></_>
    <_>
      <rects>
        <_>
          1 13 14 2 -1.</_>
        <_>
          1 13 7 1 2.</_>
        <_>
          8 14 7 1 2.</_></rects>
      <tilted>0</tilted></_>
    <_>
      <rects>
        <_>
          2 0 22 24 -1.</_>
        <_>
          2 8 22 8 3.</_></rects>
      <tilted>0</tilted></_>
    <_>
      <rects>
        <_>
          2 17 15 3 -1.</_>
        <_>
          2 18 15 1 3.</_></rects>
      <tilted>0</tilted></_>
    <_>
      <rects>
        <_>
          2 18 21 1 -1.</_>
        <_>
          9 18 7 1 3.</_></rects>
      <tilted>0</tilted></_>
    <_>
      <rects>
        <_>
          3 1 21 19 -1.</_>
        <_>
          10 1 7 19 3.</_></rects>
      <tilted>0</tilted></_>
    <_>
      <rects>
        <_>
          3 11 2 3 -1.</_>
        <_>
          4 11 1 3 2.</_></rects>
      <tilted>0</tilted></_>
    <_>
      <rects>
        <_>
          8 0 11 24 -1.</_>
        <_>
          8 8 11 8 3.</_></rects>
      <tilted>0</tilted></_>
    <_>
      <rects>
        <_>
          9 1 15 21 -1.</_>
        <_>
          14 1 5 21 3.</_></rects>
      <tilted>0</tilted></_>
    <_>
      <rects>
        <_>
          14 4 2 2 -1.</_>
        <_>
          14 5 2 1 2.</_></rects>
      <tilted>0</tilted></_>
    <_>
      <rects>
        <_>
          14 17 6 4 -1.</_>
        <_>
          14 17 3 2 2.</_>
        <_>
          17 19 3 2 2.</_></rects>
      <tilted>0</tilted></_>
    <_>
      <rects>
        <_>
          15 6 8 13 -1.</_>
        <_>
          19 6 4 13 2.</_></rects>
      <tilted>0</tilted></_>
    <_>
      <rects>
        <_>
          16 6 2 2 -1.</_>
        <_>
          16 6 1 1 2.</_>
        <_>
          17 7 1 1 2.</_></rects>
      <tilted>0</tilted></_>
    <_>
      <rects>
        <_>
          16 7 6 11 -1.</_>
        <_>
          19 7 3 11 2.</_></rects>
      <tilted>0</tilted></_></features></cascade>
</opencv_storage>
