<?xml version="1.0"?>
<opencv_storage>
<cascade>
  <stageType>BOOST</stageType>
  <featureType>HAAR</featureType>
  <height>20</height>
  <width>20</width>
  <stageParams>
    <boostType>GAB</boostType>
    <minHitRate>9.9500000476837158e-01</minHitRate>
    <maxFalseAlarm>5.0000000000000000e-01</maxFalseAlarm>
    <weightTrimRate>9.4999999999999996e-01</weightTrimRate>
    <maxDepth>1</maxDepth>
    <maxWeakCount>100</maxWeakCount></stageParams>
  <featureParams>
    <maxCatCount>0</maxCatCount>
    <featSize>1</featSize>
    <mode>BASIC</mode></featureParams>
  <stageNum>9</stageNum>
  <stages>
    <!-- stage 0 -->
    <_>
      <maxWeakCount>3</maxWeakCount>
      <stageThreshold>-8.5963517427444458e-01</stageThreshold>
      <weakClassifiers>
        <_>
          <internalNodes>
            0 -1 38 -1.8998201936483383e-02</internalNodes>
          <leafValues>
            8.4838712215423584e-01 -8.7441861629486084e-01</leafValues></_>
        <_>
          <internalNodes>
            0 -1 45 5.8690324425697327e-02</internalNodes>
          <leafValues>
            -6.3087421655654907e-01 8.0451720952987671e-01</leafValues></_>
        <_>
          <internalNodes>
            0 -1 0 1.1866264976561069e-02</internalNodes>
          <leafValues>
            -7.8009164333343506e-01 6.4565759897232056e-01</leafValues></_></weakClassifiers></_>
    <!-- stage 1 -->
    <_>
      <maxWeakCount>5</maxWeakCount>
      <stageThreshold>-1.2021303176879883e+00</stageThreshold>
      <weakClassifiers>
        <_>
          <internalNodes>
            0 -1 34 -4.0480874478816986e-02</internalNodes>
          <leafValues>
            7.6766091585159302e-01 -8.2082325220108032e-01</leafValues></_>
        <_>
          <internalNodes>
            0 -1 36 5.1425255835056305e-02</internalNodes>
          <leafValues>
            -5.6770080327987671e-01 7.1448838710784912e-01</leafValues></_>
        <_>
          <internalNodes>
            0 -1 5 8.8509079068899155e-03</internalNodes>
          <leafValues>
            -8.0302208662033081e-01 4.5124879479408264e-01</leafValues></_>
        <_>
          <internalNodes>
            0 -1 43 1.3963671401143074e-02</internalNodes>
          <leafValues>
            -6.2107056379318237e-01 5.9056454896926880e-01</leafValues></_>
        <_>
          <internalNodes>
            0 -1 30 -2.1753061446361244e-04</internalNodes>
          <leafValues>
            3.5621550679206848e-01 -8.2146805524826050e-01</leafValues></_></weakClassifiers></_>
    <!-- stage 2 -->
    <_>
      <maxWeakCount>5</maxWeakCount>
      <stageThreshold>-1.1911932229995728e+00</stageThreshold>
      <weakClassifiers>
        <_>
          <internalNodes>
            0 -1 11 2.2141993045806885e-02</internalNodes>
          <leafValues>
            -7.4718397855758667e-01 6.8946963548660278e-01</leafValues></_>
        <_>
          <internalNodes>
            0 -1 32 4.5778721570968628e-02</internalNodes>
          <leafValues>
            -5.8615928888320923e-01 6.8025523424148560e-01</leafValues></_>
        <_>
          <internalNodes>
            0 -1 12 3.2153348438441753e-03</internalNodes>
          <leafValues>
            -8.3834505081176758e-01 3.9348274469375610e-01</leafValues></_>
        <_>
          <internalNodes>
            0 -1 42 7.8010581433773041e-02</internalNodes>
          <leafValues>
            -4.9032476544380188e-01 6.3393366336822510e-01</leafValues></_>
        <_>
          <internalNodes>
            0 -1 33 4.9721222603693604e-04</internalNodes>
          <leafValues>
            -9.2231345176696777e-01 3.4656146168708801e-01</leafValues></_></weakClassifiers></_>
    <!-- stage 3 -->
    <_>
      <maxWeakCount>5</maxWeakCount>
      <stageThreshold>-1.5162795782089233e+00</stageThreshold>
      <weakClassifiers>
        <_>
          <internalNodes>
            0 -1 23 9.1332033276557922e-02</internalNodes>
          <leafValues>
            -7.3983740806579590e-01 6.2114536762237549e-01</leafValues></_>
        <_>
          <internalNodes>
            0 -1 31 -2.2612961474806070e-03</internalNodes>
          <leafValues>
            4.6048069000244141e-01 -7.7348840236663818e-01</leafValues></_>
        <_>
          <internalNodes>
            0 -1 39 2.2220902144908905e-02</internalNodes>
          <leafValues>
            -8.4099984169006348e-01 3.9324828982353210e-01</leafValues></_>
        <_>
          <internalNodes>
            0 -1 29 3.0825720168650150e-03</internalNodes>
          <leafValues>
            -8.3092260360717773e-01 3.0869692564010620e-01</leafValues></_>
        <_>
          <internalNodes>
            0 -1 4 5.7041407562792301e-03</internalNodes>
          <leafValues>
            -8.3332288265228271e-01 3.0798593163490295e-01</leafValues></_></weakClassifiers></_>
    <!-- stage 4 -->
    <_>
      <maxWeakCount>6</maxWeakCount>
      <stageThreshold>-1.0102242231369019e+00</stageThreshold>
      <weakClassifiers>
        <_>
          <internalNodes>
            0 -1 10 4.2727522552013397e-02</internalNodes>
          <leafValues>
            -5.8236658573150635e-01 6.4781904220581055e-01</leafValues></_>
        <_>
          <internalNodes>
            0 -1 8 3.1168754212558270e-03</internalNodes>
          <leafValues>
            -8.1922250986099243e-01 3.8026446104049683e-01</leafValues></_>
        <_>
          <internalNodes>
            0 -1 44 9.6480667591094971e-02</internalNodes>
          <leafValues>
            -4.7955781221389771e-01 6.6189062595367432e-01</leafValues></_>
        <_>
          <internalNodes>
            0 -1 46 2.7961499290540814e-04</internalNodes>
          <leafValues>
            -9.1359585523605347e-01 3.2400974631309509e-01</leafValues></_>
        <_>
          <internalNodes>
            0 -1 35 -2.7236051391810179e-04</internalNodes>
          <leafValues>
            2.9567825794219971e-01 -7.1515828371047974e-01</leafValues></_>
        <_>
          <internalNodes>
            0 -1 26 -3.1894594430923462e-02</internalNodes>
          <leafValues>
            2.5123476982116699e-01 -8.7219667434692383e-01</leafValues></_></weakClassifiers></_>
    <!-- stage 5 -->
    <_>
      <maxWeakCount>6</maxWeakCount>
      <stageThreshold>-1.0800617933273315e+00</stageThreshold>
      <weakClassifiers>
        <_>
          <internalNodes>
            0 -1 7 3.2496061176061630e-02</internalNodes>
          <leafValues>
            -4.9325025081634521e-01 6.8161827325820923e-01</leafValues></_>
        <_>
          <internalNodes>
            0 -1 40 5.8228600770235062e-02</internalNodes>
          <leafValues>
            -4.9986574053764343e-01 6.1479169130325317e-01</leafValues></_>
        <_>
          <internalNodes>
            0 -1 41 4.0091085247695446e-04</internalNodes>
          <leafValues>
            -8.8863646984100342e-01 3.2750490307807922e-01</leafValues></_>
        <_>
          <internalNodes>
            0 -1 15 1.2973690172657371e-03</internalNodes>
          <leafValues>
            -8.3467280864715576e-01 2.6186716556549072e-01</leafValues></_>
        <_>
          <internalNodes>
            0 -1 14 2.6646198239177465e-03</internalNodes>
          <leafValues>
            2.1562702953815460e-01 -8.1418001651763916e-01</leafValues></_>
        <_>
          <internalNodes>
            0 -1 21 -2.1118062431924045e-04</internalNodes>
          <leafValues>
            3.0607897043228149e-01 -6.7647969722747803e-01</leafValues></_></weakClassifiers></_>
    <!-- stage 6 -->
    <_>
      <maxWeakCount>7</maxWeakCount>
      <stageThreshold>-8.5216462612152100e-01</stageThreshold>
      <weakClassifiers>
        <_>
          <internalNodes>
            0 -1 47 3.2728288322687149e-02</internalNodes>
          <leafValues>
            -6.1879897117614746e-01 5.8020991086959839e-01</leafValues></_>
        <_>
          <internalNodes>
            0 -1 1 2.8111753053963184e-03</internalNodes>
          <leafValues>
            -4.7387957572937012e-01 5.8291792869567871e-01</leafValues></_>
        <_>
          <internalNodes>
            0 -1 3 -3.3844240009784698e-02</internalNodes>
          <leafValues>
            3.4464687108993530e-01 -8.0710810422897339e-01</leafValues></_>
        <_>
          <internalNodes>
            0 -1 6 4.2837182991206646e-03</internalNodes>
          <leafValues>
            -8.8778054714202881e-01 2.7915239334106445e-01</leafValues></_>
        <_>
          <internalNodes>
            0 -1 22 6.6252151736989617e-04</internalNodes>
          <leafValues>
            -6.9929617643356323e-01 2.9876944422721863e-01</leafValues></_>
        <_>
          <internalNodes>
            0 -1 17 -7.8187952749431133e-04</internalNodes>
          <leafValues>
            -8.8629221916198730e-01 2.6204442977905273e-01</leafValues></_>
        <_>
          <internalNodes>
            0 -1 37 9.7425660351291299e-04</internalNodes>
          <leafValues>
            -8.4947961568832397e-01 2.2283367812633514e-01</leafValues></_></weakClassifiers></_>
    <!-- stage 7 -->
    <_>
      <maxWeakCount>6</maxWeakCount>
      <stageThreshold>-9.8962926864624023e-01</stageThreshold>
      <weakClassifiers>
        <_>
          <internalNodes>
            0 -1 19 -7.5032562017440796e-02</internalNodes>
          <leafValues>
            5.8897638320922852e-01 -5.3975903987884521e-01</leafValues></_>
        <_>
          <internalNodes>
            0 -1 16 1.8578590825200081e-03</internalNodes>
          <leafValues>
            -8.2059812545776367e-01 3.4377866983413696e-01</leafValues></_>
        <_>
          <internalNodes>
            0 -1 24 1.3861251063644886e-03</internalNodes>
          <leafValues>
            -9.0628767013549805e-01 2.8606271743774414e-01</leafValues></_>
        <_>
          <internalNodes>
            0 -1 2 3.4778572618961334e-02</internalNodes>
          <leafValues>
            -4.5043820142745972e-01 5.1819181442260742e-01</leafValues></_>
        <_>
          <internalNodes>
            0 -1 28 -2.2079534828662872e-02</internalNodes>
          <leafValues>
            2.3655633628368378e-01 -9.2797464132308960e-01</leafValues></_>
        <_>
          <internalNodes>
            0 -1 25 3.9618560113012791e-03</internalNodes>
          <leafValues>
            2.9870128631591797e-01 -6.5717512369155884e-01</leafValues></_></weakClassifiers></_>
    <!-- stage 8 -->
    <_>
      <maxWeakCount>6</maxWeakCount>
      <stageThreshold>-1.1001740694046021e+00</stageThreshold>
      <weakClassifiers>
        <_>
          <internalNodes>
            0 -1 20 4.4909805059432983e-02</internalNodes>
          <leafValues>
            -5.5303031206130981e-01 5.6422019004821777e-01</leafValues></_>
        <_>
          <internalNodes>
            0 -1 27 7.5286980718374252e-03</internalNodes>
          <leafValues>
            3.2390284538269043e-01 -7.7974480390548706e-01</leafValues></_>
        <_>
          <internalNodes>
            0 -1 9 -1.8580486066639423e-03</internalNodes>
          <leafValues>
            -8.7208682298660278e-01 2.1260429918766022e-01</leafValues></_>
        <_>
          <internalNodes>
            0 -1 42 1.1791944503784180e-01</internalNodes>
          <leafValues>
            -3.9641499519348145e-01 5.6855094432830811e-01</leafValues></_>
        <_>
          <internalNodes>
            0 -1 13 1.1984535958617926e-03</internalNodes>
          <leafValues>
            -8.7321335077285767e-01 2.5634041428565979e-01</leafValues></_>
        <_>
          <internalNodes>
            0 -1 18 8.5514001548290253e-03</internalNodes>
          <leafValues>
            1.7237465083599091e-01 -9.8014622926712036e-01</leafValues></_></weakClassifiers></_></stages>
  <features>
    <_>
      <rects>
        <_>
          2 6 8 2 -1.</_>
        <_>
          6 6 4 2 2.</_></rects>
      <tilted>0</tilted></_>
    <_>
      <rects>
        <_>
          3 9 2 3 -1.</_>
        <_>
          4 9 1 3 2.</_></rects>
      <tilted>0</tilted></_>
    <_>
      <rects>
        <_>
          4 0 11 4 -1.</_>
        <_>
          4 2 11 2 2.</_></rects>
      <tilted>0</tilted></_>
    <_>
      <rects>
        <_>
          4 6 11 9 -1.</_>
        <_>
          4 9 11 3 3.</_></rects>
      <tilted>0</tilted></_>
    <_>
      <rects>
        <_>
          4 7 4 5 -1.</_>
        <_>
          6 7 2 5 2.</_></rects>
      <tilted>0</tilted></_>
    <_>
      <rects>
        <_>
          4 7 4 6 -1.</_>
        <_>
          6 7 2 6 2.</_></rects>
      <tilted>0</tilted></_>
    <_>
      <rects>
        <_>
          4 8 4 5 -1.</_>
        <_>
          6 8 2 5 2.</_></rects>
      <tilted>0</tilted></_>
    <_>
      <rects>
        <_>
          4 10 8 6 -1.</_>
        <_>
          4 10 4 3 2.</_>
        <_>
          8 13 4 3 2.</_></rects>
      <tilted>0</tilted></_>
    <_>
      <rects>
        <_>
          5 5 4 2 -1.</_>
        <_>
          7 5 2 2 2.</_></rects>
      <tilted>0</tilted></_>
    <_>
      <rects>
        <_>
          5 6 3 6 -1.</_>
        <_>
          5 8 3 2 3.</_></rects>
      <tilted>0</tilted></_>
    <_>
      <rects>
        <_>
          5 9 8 8 -1.</_>
        <_>
          5 9 4 4 2.</_>
        <_>
          9 13 4 4 2.</_></rects>
      <tilted>0</tilted></_>
    <_>
      <rects>
        <_>
          5 10 8 6 -1.</_>
        <_>
          5 10 4 3 2.</_>
        <_>
          9 13 4 3 2.</_></rects>
      <tilted>0</tilted></_>
    <_>
      <rects>
        <_>
          6 4 6 2 -1.</_>
        <_>
          9 4 3 2 2.</_></rects>
      <tilted>0</tilted></_>
    <_>
      <rects>
        <_>
          6 5 4 1 -1.</_>
        <_>
          8 5 2 1 2.</_></rects>
      <tilted>0</tilted></_>
    <_>
      <rects>
        <_>
          6 5 6 1 -1.</_>
        <_>
          8 5 2 1 3.</_></rects>
      <tilted>0</tilted></_>
    <_>
      <rects>
        <_>
          6 6 4 1 -1.</_>
        <_>
          8 6 2 1 2.</_></rects>
      <tilted>0</tilted></_>
    <_>
      <rects>
        <_>
          6 15 8 1 -1.</_>
        <_>
          10 15 4 1 2.</_></rects>
      <tilted>0</tilted></_>
    <_>
      <rects>
        <_>
          7 4 6 2 -1.</_>
        <_>
          9 4 2 2 3.</_></rects>
      <tilted>0</tilted></_>
    <_>
      <rects>
        <_>
          7 5 6 2 -1.</_>
        <_>
          9 5 2 2 3.</_></rects>
      <tilted>0</tilted></_>
    <_>
      <rects>
        <_>
          7 7 9 7 -1.</_>
        <_>
          10 7 3 7 3.</_></rects>
      <tilted>0</tilted></_>
    <_>
      <rects>
        <_>
          7 10 8 9 -1.</_>
        <_>
          7 13 8 3 3.</_></rects>
      <tilted>0</tilted></_>
    <_>
      <rects>
        <_>
          7 14 1 2 -1.</_>
        <_>
          7 15 1 1 2.</_></rects>
      <tilted>0</tilted></_>
    <_>
      <rects>
        <_>
          7 14 2 2 -1.</_>
        <_>
          8 14 1 2 2.</_></rects>
      <tilted>0</tilted></_>
    <_>
      <rects>
        <_>
          8 0 6 12 -1.</_>
        <_>
          8 4 6 4 3.</_></rects>
      <tilted>0</tilted></_>
    <_>
      <rects>
        <_>
          8 3 6 3 -1.</_>
        <_>
          10 3 2 3 3.</_></rects>
      <tilted>0</tilted></_>
    <_>
      <rects>
        <_>
          8 3 6 7 -1.</_>
        <_>
          10 3 2 7 3.</_></rects>
      <tilted>0</tilted></_>
    <_>
      <rects>
        <_>
          8 3 6 12 -1.</_>
        <_>
          8 9 6 6 2.</_></rects>
      <tilted>0</tilted></_>
    <_>
      <rects>
        <_>
          8 4 6 2 -1.</_>
        <_>
          10 4 2 2 3.</_></rects>
      <tilted>0</tilted></_>
    <_>
      <rects>
        <_>
          8 4 8 12 -1.</_>
        <_>
          8 10 8 6 2.</_></rects>
      <tilted>0</tilted></_>
    <_>
      <rects>
        <_>
          8 5 9 1 -1.</_>
        <_>
          11 5 3 1 3.</_></rects>
      <tilted>0</tilted></_>
    <_>
      <rects>
        <_>
          8 14 1 2 -1.</_>
        <_>
          8 15 1 1 2.</_></rects>
      <tilted>0</tilted></_>
    <_>
      <rects>
        <_>
          8 15 6 2 -1.</_>
        <_>
          8 16 6 1 2.</_></rects>
      <tilted>0</tilted></_>
    <_>
      <rects>
        <_>
          9 3 8 8 -1.</_>
        <_>
          9 3 4 4 2.</_>
        <_>
          13 7 4 4 2.</_></rects>
      <tilted>0</tilted></_>
    <_>
      <rects>
        <_>
          9 4 6 2 -1.</_>
        <_>
          9 5 6 1 2.</_></rects>
      <tilted>0</tilted></_>
    <_>
      <rects>
        <_>
          9 6 5 9 -1.</_>
        <_>
          9 9 5 3 3.</_></rects>
      <tilted>0</tilted></_>
    <_>
      <rects>
        <_>
          9 15 1 2 -1.</_>
        <_>
          9 16 1 1 2.</_></rects>
      <tilted>0</tilted></_>
    <_>
      <rects>
        <_>
          10 1 4 9 -1.</_>
        <_>
          10 4 4 3 3.</_></rects>
      <tilted>0</tilted></_>
    <_>
      <rects>
        <_>
          10 4 6 3 -1.</_>
        <_>
          12 4 2 3 3.</_></rects>
      <tilted>0</tilted></_>
    <_>
      <rects>
        <_>
          10 5 3 6 -1.</_>
        <_>
          10 8 3 3 2.</_></rects>
      <tilted>0</tilted></_>
    <_>
      <rects>
        <_>
          10 7 6 7 -1.</_>
        <_>
          13 7 3 7 2.</_></rects>
      <tilted>0</tilted></_>
    <_>
      <rects>
        <_>
          11 2 6 10 -1.</_>
        <_>
          11 2 3 5 2.</_>
        <_>
          14 7 3 5 2.</_></rects>
      <tilted>0</tilted></_>
    <_>
      <rects>
        <_>
          11 3 2 2 -1.</_>
        <_>
          11 4 2 1 2.</_></rects>
      <tilted>0</tilted></_>
    <_>
      <rects>
        <_>
          11 5 9 8 -1.</_>
        <_>
          14 5 3 8 3.</_></rects>
      <tilted>0</tilted></_>
    <_>
      <rects>
        <_>
          11 6 4 7 -1.</_>
        <_>
          13 6 2 7 2.</_></rects>
      <tilted>0</tilted></_>
    <_>
      <rects>
        <_>
          11 7 9 6 -1.</_>
        <_>
          14 7 3 6 3.</_></rects>
      <tilted>0</tilted></_>
    <_>
      <rects>
        <_>
          11 8 9 5 -1.</_>
        <_>
          14 8 3 5 3.</_></rects>
      <tilted>0</tilted></_>
    <_>
      <rects>
        <_>
          12 4 2 2 -1.</_>
        <_>
          12 5 2 1 2.</_></rects>
      <tilted>0</tilted></_>
    <_>
      <rects>
        <_>
          12 4 6 10 -1.</_>
        <_>
          14 4 2 10 3.</_></rects>
      <tilted>0</tilted></_></features></cascade>
</opencv_storage>
