<?xml version="1.0"?>
<opencv_storage>
<stage5>
  <maxWeakCount>6</maxWeakCount>
  <stageThreshold>-1.0800617933273315e+00</stageThreshold>
  <weakClassifiers>
    <_>
      <internalNodes>
        0 -1 32748 3.2496061176061630e-02</internalNodes>
      <leafValues>
        -4.9325025081634521e-01 6.8161827325820923e-01</leafValues></_>
    <_>
      <internalNodes>
        0 -1 63177 5.8228600770235062e-02</internalNodes>
      <leafValues>
        -4.9986574053764343e-01 6.1479169130325317e-01</leafValues></_>
    <_>
      <internalNodes>
        0 -1 63386 4.0091085247695446e-04</internalNodes>
      <leafValues>
        -8.8863646984100342e-01 3.2750490307807922e-01</leafValues></_>
    <_>
      <internalNodes>
        0 -1 42589 1.2973690172657371e-03</internalNodes>
      <leafValues>
        -8.3467280864715576e-01 2.6186716556549072e-01</leafValues></_>
    <_>
      <internalNodes>
        0 -1 42212 2.6646198239177465e-03</internalNodes>
      <leafValues>
        2.1562702953815460e-01 -8.1418001651763916e-01</leafValues></_>
    <_>
      <internalNodes>
        0 -1 49521 -2.1118062431924045e-04</internalNodes>
      <leafValues>
        3.0607897043228149e-01 -6.7647969722747803e-01</leafValues></_></weakClassifiers></stage5>
</opencv_storage>
