<?xml version="1.0"?>
<opencv_storage>
<stage4>
  <maxWeakCount>8</maxWeakCount>
  <stageThreshold>-1.2095674276351929e+00</stageThreshold>
  <weakClassifiers>
    <_>
      <internalNodes>
        0 -1 58250 -1.1590542271733284e-03</internalNodes>
      <leafValues>
        -8.8738739490509033e-01 3.3826878666877747e-01</leafValues></_>
    <_>
      <internalNodes>
        0 -1 4872 8.0782603472471237e-03</internalNodes>
      <leafValues>
        -4.2403504252433777e-01 5.6173628568649292e-01</leafValues></_>
    <_>
      <internalNodes>
        0 -1 49560 -1.8599387258291245e-03</internalNodes>
      <leafValues>
        2.9082894325256348e-01 -8.2642459869384766e-01</leafValues></_>
    <_>
      <internalNodes>
        0 -1 53414 2.1051064133644104e-02</internalNodes>
      <leafValues>
        -6.3806492090225220e-01 3.1964072585105896e-01</leafValues></_>
    <_>
      <internalNodes>
        0 -1 22619 2.7967184782028198e-02</internalNodes>
      <leafValues>
        -2.6037719845771790e-01 7.2408223152160645e-01</leafValues></_>
    <_>
      <internalNodes>
        0 -1 62057 -1.4744073268957436e-04</internalNodes>
      <leafValues>
        1.9592091441154480e-01 -8.0222910642623901e-01</leafValues></_>
    <_>
      <internalNodes>
        0 -1 54230 -6.3271410763263702e-03</internalNodes>
      <leafValues>
        -8.1374377012252808e-01 2.1068249642848969e-01</leafValues></_>
    <_>
      <internalNodes>
        0 -1 74868 -2.3764271754771471e-03</internalNodes>
      <leafValues>
        3.4151959419250488e-01 -5.0284415483474731e-01</leafValues></_></weakClassifiers></stage4>
</opencv_storage>
