<?xml version="1.0"?>
<opencv_storage>
<stage3>
  <maxWeakCount>7</maxWeakCount>
  <stageThreshold>-8.2374626398086548e-01</stageThreshold>
  <weakClassifiers>
    <_>
      <internalNodes>
        0 -1 2765 1.2632960453629494e-02</internalNodes>
      <leafValues>
        -3.5758513212203979e-01 7.2907489538192749e-01</leafValues></_>
    <_>
      <internalNodes>
        0 -1 73257 -9.2955969739705324e-04</internalNodes>
      <leafValues>
        4.5375993847846985e-01 -6.5254229307174683e-01</leafValues></_>
    <_>
      <internalNodes>
        0 -1 44679 2.2417437285184860e-03</internalNodes>
      <leafValues>
        2.9360055923461914e-01 -8.2618796825408936e-01</leafValues></_>
    <_>
      <internalNodes>
        0 -1 53554 3.3330097794532776e-02</internalNodes>
      <leafValues>
        -6.0865521430969238e-01 4.0670523047447205e-01</leafValues></_>
    <_>
      <internalNodes>
        0 -1 58146 -2.1467013284564018e-03</internalNodes>
      <leafValues>
        2.0984885096549988e-01 -8.4574413299560547e-01</leafValues></_>
    <_>
      <internalNodes>
        0 -1 54212 2.1172733977437019e-03</internalNodes>
      <leafValues>
        2.3897272348403931e-01 -8.6579161882400513e-01</leafValues></_>
    <_>
      <internalNodes>
        0 -1 58269 2.1514776744879782e-04</internalNodes>
      <leafValues>
        1.5550443530082703e-01 -9.0351480245590210e-01</leafValues></_></weakClassifiers></stage3>
</opencv_storage>
