<?xml version="1.0"?>
<opencv_storage>
<stage5>
  <maxWeakCount>8</maxWeakCount>
  <stageThreshold>-9.4037944078445435e-01</stageThreshold>
  <weakClassifiers>
    <_>
      <internalNodes>
        0 -1 5773 2.1945104002952576e-02</internalNodes>
      <leafValues>
        -4.7014114260673523e-01 4.9491789937019348e-01</leafValues></_>
    <_>
      <internalNodes>
        0 -1 62072 -8.0432172399014235e-04</internalNodes>
      <leafValues>
        2.3108156025409698e-01 -9.4392675161361694e-01</leafValues></_>
    <_>
      <internalNodes>
        0 -1 33767 -7.7677637338638306e-02</internalNodes>
      <leafValues>
        5.2434718608856201e-01 -3.8762214779853821e-01</leafValues></_>
    <_>
      <internalNodes>
        0 -1 58269 -2.0397468470036983e-03</internalNodes>
      <leafValues>
        -7.4091589450836182e-01 2.5074845552444458e-01</leafValues></_>
    <_>
      <internalNodes>
        0 -1 57626 -4.7586993314325809e-03</internalNodes>
      <leafValues>
        6.1787623167037964e-01 -2.7595046162605286e-01</leafValues></_>
    <_>
      <internalNodes>
        0 -1 5692 1.8597187008708715e-03</internalNodes>
      <leafValues>
        -3.4208181500434875e-01 4.5430308580398560e-01</leafValues></_>
    <_>
      <internalNodes>
        0 -1 44540 1.1783490888774395e-02</internalNodes>
      <leafValues>
        2.4311523139476776e-01 -7.8732740879058838e-01</leafValues></_>
    <_>
      <internalNodes>
        0 -1 49540 -2.1790261380374432e-03</internalNodes>
      <leafValues>
        -8.7774610519409180e-01 1.2422361224889755e-01</leafValues></_></weakClassifiers></stage5>
</opencv_storage>
