<?xml version="1.0"?>
<opencv_storage>
<stage6>
  <maxWeakCount>10</maxWeakCount>
  <stageThreshold>-1.1100673675537109e+00</stageThreshold>
  <weakClassifiers>
    <_>
      <internalNodes>
        0 -1 49146 2.5185726583003998e-02</internalNodes>
      <leafValues>
        -5.3357756137847900e-01 4.6125996112823486e-01</leafValues></_>
    <_>
      <internalNodes>
        0 -1 44697 -1.3425481738522649e-03</internalNodes>
      <leafValues>
        2.3952907323837280e-01 -7.7580422163009644e-01</leafValues></_>
    <_>
      <internalNodes>
        0 -1 29869 -9.5146233215928078e-03</internalNodes>
      <leafValues>
        6.5149766206741333e-01 -3.1968608498573303e-01</leafValues></_>
    <_>
      <internalNodes>
        0 -1 44699 -1.4553756045643240e-04</internalNodes>
      <leafValues>
        -8.3487242460250854e-01 2.2042469680309296e-01</leafValues></_>
    <_>
      <internalNodes>
        0 -1 2151 1.2959952466189861e-02</internalNodes>
      <leafValues>
        -3.9091980457305908e-01 4.1908970475196838e-01</leafValues></_>
    <_>
      <internalNodes>
        0 -1 49542 1.8319624941796064e-03</internalNodes>
      <leafValues>
        1.9054132699966431e-01 -8.1882250308990479e-01</leafValues></_>
    <_>
      <internalNodes>
        0 -1 20031 3.4131514839828014e-03</internalNodes>
      <leafValues>
        -5.1819854974746704e-01 2.5141862034797668e-01</leafValues></_>
    <_>
      <internalNodes>
        0 -1 74931 -1.2987330555915833e-03</internalNodes>
      <leafValues>
        3.2004612684249878e-01 -4.6314048767089844e-01</leafValues></_>
    <_>
      <internalNodes>
        0 -1 61931 -4.3917345465160906e-05</internalNodes>
      <leafValues>
        1.7270454764366150e-01 -7.3500853776931763e-01</leafValues></_>
    <_>
      <internalNodes>
        0 -1 9780 -3.6811538040637970e-02</internalNodes>
      <leafValues>
        7.5426900386810303e-01 -2.3068863153457642e-01</leafValues></_></weakClassifiers></stage6>
</opencv_storage>
